<?xml version="1.0"?>
<opencv_storage>
<cascade>
  <stageType>BOOST</stageType>
  <featureType>HAAR</featureType>
  <height>6</height>
  <width>6</width>
  <stageParams>
    <boostType>GAB</boostType>
    <minHitRate>9.9989998340606689e-01</minHitRate>
    <maxFalseAlarm>3.0000001192092896e-01</maxFalseAlarm>
    <weightTrimRate>9.4999999999999996e-01</weightTrimRate>
    <maxDepth>1</maxDepth>
    <maxWeakCount>100</maxWeakCount></stageParams>
  <featureParams>
    <maxCatCount>0</maxCatCount>
    <featSize>1</featSize>
    <mode>BASIC</mode></featureParams>
  <stageNum>6</stageNum>
  <stages>
    <!-- stage 0 -->
    <_>
      <maxWeakCount>7</maxWeakCount>
      <stageThreshold>-2.8412075042724609e+00</stageThreshold>
      <weakClassifiers>
        <_>
          <internalNodes>
            0 -1 18 -1.2112486362457275e+00</internalNodes>
          <leafValues>
            9.9882608652114868e-01 -9.3491965532302856e-01</leafValues></_>
        <_>
          <internalNodes>
            0 -1 26 -5.9207022190093994e-01</internalNodes>
          <leafValues>
            9.6654796600341797e-01 -7.7375084161758423e-01</leafValues></_>
        <_>
          <internalNodes>
            0 -1 24 2.9397933394648135e-04</internalNodes>
          <leafValues>
            8.4823065996170044e-01 -8.9795827865600586e-01</leafValues></_>
        <_>
          <internalNodes>
            0 -1 13 -2.6909118890762329e-01</internalNodes>
          <leafValues>
            8.1566256284713745e-01 -8.2552850246429443e-01</leafValues></_>
        <_>
          <internalNodes>
            0 -1 6 -1.0065731406211853e-01</internalNodes>
          <leafValues>
            7.3017197847366333e-01 -7.8877496719360352e-01</leafValues></_>
        <_>
          <internalNodes>
            0 -1 29 -1.7912197113037109e-01</internalNodes>
          <leafValues>
            7.3969608545303345e-01 -7.2491925954818726e-01</leafValues></_>
        <_>
          <internalNodes>
            0 -1 1 -4.0124049782752991e-01</internalNodes>
          <leafValues>
            5.8569705486297607e-01 -8.8711124658584595e-01</leafValues></_></weakClassifiers></_>
    <!-- stage 1 -->
    <_>
      <maxWeakCount>7</maxWeakCount>
      <stageThreshold>-2.5682678222656250e+00</stageThreshold>
      <weakClassifiers>
        <_>
          <internalNodes>
            0 -1 5 -1.5843091011047363e+00</internalNodes>
          <leafValues>
            9.9978601932525635e-01 -9.2753767967224121e-01</leafValues></_>
        <_>
          <internalNodes>
            0 -1 26 -7.1590375900268555e-01</internalNodes>
          <leafValues>
            9.5060420036315918e-01 -7.1907079219818115e-01</leafValues></_>
        <_>
          <internalNodes>
            0 -1 31 2.8789509087800980e-04</internalNodes>
          <leafValues>
            7.2462892532348633e-01 -9.2968469858169556e-01</leafValues></_>
        <_>
          <internalNodes>
            0 -1 3 -9.3418759107589722e-01</internalNodes>
          <leafValues>
            9.8593002557754517e-01 -4.9030485749244690e-01</leafValues></_>
        <_>
          <internalNodes>
            0 -1 25 -1.3535782694816589e-01</internalNodes>
          <leafValues>
            5.9747421741485596e-01 -9.6773451566696167e-01</leafValues></_>
        <_>
          <internalNodes>
            0 -1 30 -2.4356222152709961e-01</internalNodes>
          <leafValues>
            9.3885660171508789e-01 -5.9668594598770142e-01</leafValues></_>
        <_>
          <internalNodes>
            0 -1 6 -9.7675070166587830e-02</internalNodes>
          <leafValues>
            4.9754199385643005e-01 -8.3125334978103638e-01</leafValues></_></weakClassifiers></_>
    <!-- stage 2 -->
    <_>
      <maxWeakCount>7</maxWeakCount>
      <stageThreshold>-2.3738310337066650e+00</stageThreshold>
      <weakClassifiers>
        <_>
          <internalNodes>
            0 -1 4 -1.3661985397338867e+00</internalNodes>
          <leafValues>
            1. -9.2677253484725952e-01</leafValues></_>
        <_>
          <internalNodes>
            0 -1 22 -1.1218065023422241e+00</internalNodes>
          <leafValues>
            9.8739469051361084e-01 -6.4654964208602905e-01</leafValues></_>
        <_>
          <internalNodes>
            0 -1 11 4.1426869574934244e-04</internalNodes>
          <leafValues>
            7.5622582435607910e-01 -7.4693149328231812e-01</leafValues></_>
        <_>
          <internalNodes>
            0 -1 15 -4.2314786463975906e-02</internalNodes>
          <leafValues>
            8.1721383333206177e-01 -6.0643905401229858e-01</leafValues></_>
        <_>
          <internalNodes>
            0 -1 30 -2.5311219692230225e-01</internalNodes>
          <leafValues>
            9.2535090446472168e-01 -5.2292412519454956e-01</leafValues></_>
        <_>
          <internalNodes>
            0 -1 0 -3.1320303678512573e-01</internalNodes>
          <leafValues>
            5.5783540010452271e-01 -9.1537183523178101e-01</leafValues></_>
        <_>
          <internalNodes>
            0 -1 14 -3.9933717250823975e-01</internalNodes>
          <leafValues>
            5.1795047521591187e-01 -8.7774664163589478e-01</leafValues></_></weakClassifiers></_>
    <!-- stage 3 -->
    <_>
      <maxWeakCount>7</maxWeakCount>
      <stageThreshold>-2.2689335346221924e+00</stageThreshold>
      <weakClassifiers>
        <_>
          <internalNodes>
            0 -1 4 -1.3661985397338867e+00</internalNodes>
          <leafValues>
            1. -9.2677253484725952e-01</leafValues></_>
        <_>
          <internalNodes>
            0 -1 18 -1.3478231430053711e+00</internalNodes>
          <leafValues>
            9.9680697917938232e-01 -6.2821590900421143e-01</leafValues></_>
        <_>
          <internalNodes>
            0 -1 29 -1.7120084166526794e-01</internalNodes>
          <leafValues>
            7.8464275598526001e-01 -7.1160620450973511e-01</leafValues></_>
        <_>
          <internalNodes>
            0 -1 2 -5.6314595043659210e-02</internalNodes>
          <leafValues>
            8.4767049551010132e-01 -4.1261273622512817e-01</leafValues></_>
        <_>
          <internalNodes>
            0 -1 30 -2.9057174921035767e-01</internalNodes>
          <leafValues>
            9.1739088296890259e-01 -4.5630022883415222e-01</leafValues></_>
        <_>
          <internalNodes>
            0 -1 19 -9.6146963536739349e-02</internalNodes>
          <leafValues>
            5.0249421596527100e-01 -8.5341864824295044e-01</leafValues></_>
        <_>
          <internalNodes>
            0 -1 1 -3.9010852575302124e-01</internalNodes>
          <leafValues>
            3.6407974362373352e-01 -9.3532550334930420e-01</leafValues></_></weakClassifiers></_>
    <!-- stage 4 -->
    <_>
      <maxWeakCount>8</maxWeakCount>
      <stageThreshold>-2.6905486583709717e+00</stageThreshold>
      <weakClassifiers>
        <_>
          <internalNodes>
            0 -1 4 -1.3278104066848755e+00</internalNodes>
          <leafValues>
            1. -9.2755234241485596e-01</leafValues></_>
        <_>
          <internalNodes>
            0 -1 18 -1.4216907024383545e+00</internalNodes>
          <leafValues>
            1. -6.2455219030380249e-01</leafValues></_>
        <_>
          <internalNodes>
            0 -1 28 4.7732875100336969e-04</internalNodes>
          <leafValues>
            7.1628731489181519e-01 -9.1873651742935181e-01</leafValues></_>
        <_>
          <internalNodes>
            0 -1 20 -2.7131992578506470e-01</internalNodes>
          <leafValues>
            7.3522192239761353e-01 -9.0376120805740356e-01</leafValues></_>
        <_>
          <internalNodes>
            0 -1 21 1.3628132641315460e-02</internalNodes>
          <leafValues>
            5.0544989109039307e-01 -7.2605991363525391e-01</leafValues></_>
        <_>
          <internalNodes>
            0 -1 9 -5.6721961498260498e-01</internalNodes>
          <leafValues>
            9.4913876056671143e-01 -4.4639253616333008e-01</leafValues></_>
        <_>
          <internalNodes>
            0 -1 12 -3.7508795503526926e-04</internalNodes>
          <leafValues>
            -4.8361203074455261e-01 9.4860368967056274e-01</leafValues></_>
        <_>
          <internalNodes>
            0 -1 8 -1.6632966995239258e+00</internalNodes>
          <leafValues>
            9.4458687305450439e-01 -3.1060332059860229e-01</leafValues></_></weakClassifiers></_>
    <!-- stage 5 -->
    <_>
      <maxWeakCount>8</maxWeakCount>
      <stageThreshold>-1.7485325336456299e+00</stageThreshold>
      <weakClassifiers>
        <_>
          <internalNodes>
            0 -1 17 -6.9510507583618164e-01</internalNodes>
          <leafValues>
            1. -9.2989563941955566e-01</leafValues></_>
        <_>
          <internalNodes>
            0 -1 27 -9.7223222255706787e-02</internalNodes>
          <leafValues>
            -8.1605535745620728e-01 9.1544276475906372e-01</leafValues></_>
        <_>
          <internalNodes>
            0 -1 15 -2.9401438310742378e-02</internalNodes>
          <leafValues>
            8.7566155195236206e-01 -6.2818646430969238e-01</leafValues></_>
        <_>
          <internalNodes>
            0 -1 23 2.2153507918119431e-02</internalNodes>
          <leafValues>
            6.9434940814971924e-01 -8.1206721067428589e-01</leafValues></_>
        <_>
          <internalNodes>
            0 -1 13 -2.9890984296798706e-01</internalNodes>
          <leafValues>
            6.2794399261474609e-01 -7.6338380575180054e-01</leafValues></_>
        <_>
          <internalNodes>
            0 -1 10 4.7998145222663879e-02</internalNodes>
          <leafValues>
            6.7232000827789307e-01 -7.5414657592773438e-01</leafValues></_>
        <_>
          <internalNodes>
            0 -1 16 -4.5545837283134460e-01</internalNodes>
          <leafValues>
            7.1078586578369141e-01 -7.2001725435256958e-01</leafValues></_>
        <_>
          <internalNodes>
            0 -1 7 -3.1228953599929810e-01</internalNodes>
          <leafValues>
            8.5742545127868652e-01 -5.3259390592575073e-01</leafValues></_></weakClassifiers></_></stages>
  <features>
    <_>
      <rects>
        <_>
          0 0 3 2 -1.</_>
        <_>
          1 0 1 2 2.</_></rects>
      <tilted>0</tilted></_>
    <_>
      <rects>
        <_>
          0 0 3 3 -1.</_>
        <_>
          1 0 1 3 2.</_></rects>
      <tilted>0</tilted></_>
    <_>
      <rects>
        <_>
          0 0 6 1 -1.</_>
        <_>
          3 0 3 1 2.</_></rects>
      <tilted>0</tilted></_>
    <_>
      <rects>
        <_>
          0 0 4 6 -1.</_>
        <_>
          0 3 4 3 2.</_></rects>
      <tilted>0</tilted></_>
    <_>
      <rects>
        <_>
          0 0 5 6 -1.</_>
        <_>
          0 3 5 3 2.</_></rects>
      <tilted>0</tilted></_>
    <_>
      <rects>
        <_>
          0 0 6 6 -1.</_>
        <_>
          0 3 6 3 2.</_></rects>
      <tilted>0</tilted></_>
    <_>
      <rects>
        <_>
          0 1 1 3 -1.</_>
        <_>
          0 2 1 1 2.</_></rects>
      <tilted>0</tilted></_>
    <_>
      <rects>
        <_>
          0 1 2 3 -1.</_>
        <_>
          0 2 2 1 2.</_></rects>
      <tilted>0</tilted></_>
    <_>
      <rects>
        <_>
          0 1 6 5 -1.</_>
        <_>
          2 1 2 5 2.</_></rects>
      <tilted>0</tilted></_>
    <_>
      <rects>
        <_>
          0 1 3 3 -1.</_>
        <_>
          0 2 3 1 2.</_></rects>
      <tilted>0</tilted></_>
    <_>
      <rects>
        <_>
          0 3 2 2 -1.</_>
        <_>
          1 3 1 2 2.</_></rects>
      <tilted>0</tilted></_>
    <_>
      <rects>
        <_>
          0 4 6 2 -1.</_>
        <_>
          3 4 3 2 2.</_></rects>
      <tilted>0</tilted></_>
    <_>
      <rects>
        <_>
          0 5 6 1 -1.</_>
        <_>
          2 5 2 1 2.</_></rects>
      <tilted>0</tilted></_>
    <_>
      <rects>
        <_>
          1 0 3 2 -1.</_>
        <_>
          2 0 1 2 2.</_></rects>
      <tilted>0</tilted></_>
    <_>
      <rects>
        <_>
          1 0 3 3 -1.</_>
        <_>
          2 0 1 3 2.</_></rects>
      <tilted>0</tilted></_>
    <_>
      <rects>
        <_>
          1 0 4 1 -1.</_>
        <_>
          3 0 2 1 2.</_></rects>
      <tilted>0</tilted></_>
    <_>
      <rects>
        <_>
          1 0 3 3 -1.</_>
        <_>
          1 1 3 1 2.</_></rects>
      <tilted>0</tilted></_>
    <_>
      <rects>
        <_>
          1 0 3 6 -1.</_>
        <_>
          1 3 3 3 2.</_></rects>
      <tilted>0</tilted></_>
    <_>
      <rects>
        <_>
          1 0 5 6 -1.</_>
        <_>
          1 3 5 3 2.</_></rects>
      <tilted>0</tilted></_>
    <_>
      <rects>
        <_>
          1 1 3 1 -1.</_>
        <_>
          2 1 1 1 2.</_></rects>
      <tilted>0</tilted></_>
    <_>
      <rects>
        <_>
          2 0 3 2 -1.</_>
        <_>
          3 0 1 2 2.</_></rects>
      <tilted>0</tilted></_>
    <_>
      <rects>
        <_>
          2 0 4 1 -1.</_>
        <_>
          4 0 2 1 2.</_></rects>
      <tilted>0</tilted></_>
    <_>
      <rects>
        <_>
          2 0 4 6 -1.</_>
        <_>
          2 3 4 3 2.</_></rects>
      <tilted>0</tilted></_>
    <_>
      <rects>
        <_>
          2 4 4 2 -1.</_>
        <_>
          4 4 2 2 2.</_></rects>
      <tilted>0</tilted></_>
    <_>
      <rects>
        <_>
          2 5 4 1 -1.</_>
        <_>
          4 5 2 1 2.</_></rects>
      <tilted>0</tilted></_>
    <_>
      <rects>
        <_>
          3 0 3 1 -1.</_>
        <_>
          4 0 1 1 2.</_></rects>
      <tilted>0</tilted></_>
    <_>
      <rects>
        <_>
          3 0 3 6 -1.</_>
        <_>
          3 3 3 3 2.</_></rects>
      <tilted>0</tilted></_>
    <_>
      <rects>
        <_>
          3 5 3 1 -1.</_>
        <_>
          4 5 1 1 2.</_></rects>
      <tilted>0</tilted></_>
    <_>
      <rects>
        <_>
          4 5 2 1 -1.</_>
        <_>
          5 5 1 1 2.</_></rects>
      <tilted>0</tilted></_>
    <_>
      <rects>
        <_>
          5 0 1 6 -1.</_>
        <_>
          5 3 1 3 2.</_></rects>
      <tilted>0</tilted></_>
    <_>
      <rects>
        <_>
          5 2 1 4 -1.</_>
        <_>
          5 4 1 2 2.</_></rects>
      <tilted>0</tilted></_>
    <_>
      <rects>
        <_>
          5 4 1 2 -1.</_>
        <_>
          5 5 1 1 2.</_></rects>
      <tilted>0</tilted></_></features></cascade>
</opencv_storage>
