<?xml version="1.0"?>
<opencv_storage>
<stage4>
  <maxWeakCount>8</maxWeakCount>
  <stageThreshold>-2.6905486583709717e+00</stageThreshold>
  <weakClassifiers>
    <_>
      <internalNodes>
        0 -1 63 -1.3278104066848755e+00</internalNodes>
      <leafValues>
        1. -9.2755234241485596e-01</leafValues></_>
    <_>
      <internalNodes>
        0 -1 264 -1.4216907024383545e+00</internalNodes>
      <leafValues>
        1. -6.2455219030380249e-01</leafValues></_>
    <_>
      <internalNodes>
        0 -1 654 4.7732875100336969e-04</internalNodes>
      <leafValues>
        7.1628731489181519e-01 -9.1873651742935181e-01</leafValues></_>
    <_>
      <internalNodes>
        0 -1 374 -2.7131992578506470e-01</internalNodes>
      <leafValues>
        7.3522192239761353e-01 -9.0376120805740356e-01</leafValues></_>
    <_>
      <internalNodes>
        0 -1 387 1.3628132641315460e-02</internalNodes>
      <leafValues>
        5.0544989109039307e-01 -7.2605991363525391e-01</leafValues></_>
    <_>
      <internalNodes>
        0 -1 101 -5.6721961498260498e-01</internalNodes>
      <leafValues>
        9.4913876056671143e-01 -4.4639253616333008e-01</leafValues></_>
    <_>
      <internalNodes>
        0 -1 214 -3.7508795503526926e-04</internalNodes>
      <leafValues>
        -4.8361203074455261e-01 9.4860368967056274e-01</leafValues></_>
    <_>
      <internalNodes>
        0 -1 98 -1.6632966995239258e+00</internalNodes>
      <leafValues>
        9.4458687305450439e-01 -3.1060332059860229e-01</leafValues></_></weakClassifiers></stage4>
</opencv_storage>
