<?xml version="1.0"?>
<opencv_storage>
<stage3>
  <maxWeakCount>7</maxWeakCount>
  <stageThreshold>-2.2689335346221924e+00</stageThreshold>
  <weakClassifiers>
    <_>
      <internalNodes>
        0 -1 63 -1.3661985397338867e+00</internalNodes>
      <leafValues>
        1. -9.2677253484725952e-01</leafValues></_>
    <_>
      <internalNodes>
        0 -1 264 -1.3478231430053711e+00</internalNodes>
      <leafValues>
        9.9680697917938232e-01 -6.2821590900421143e-01</leafValues></_>
    <_>
      <internalNodes>
        0 -1 659 -1.7120084166526794e-01</internalNodes>
      <leafValues>
        7.8464275598526001e-01 -7.1160620450973511e-01</leafValues></_>
    <_>
      <internalNodes>
        0 -1 40 -5.6314595043659210e-02</internalNodes>
      <leafValues>
        8.4767049551010132e-01 -4.1261273622512817e-01</leafValues></_>
    <_>
      <internalNodes>
        0 -1 665 -2.9057174921035767e-01</internalNodes>
      <leafValues>
        9.1739088296890259e-01 -4.5630022883415222e-01</leafValues></_>
    <_>
      <internalNodes>
        0 -1 267 -9.6146963536739349e-02</internalNodes>
      <leafValues>
        5.0249421596527100e-01 -8.5341864824295044e-01</leafValues></_>
    <_>
      <internalNodes>
        0 -1 12 -3.9010852575302124e-01</internalNodes>
      <leafValues>
        3.6407974362373352e-01 -9.3532550334930420e-01</leafValues></_></weakClassifiers></stage3>
</opencv_storage>
