<?xml version="1.0"?>
<opencv_storage>
<cascade>
  <stageType>BOOST</stageType>
  <featureType>HAAR</featureType>
  <height>24</height>
  <width>24</width>
  <stageParams>
    <boostType>GAB</boostType>
    <minHitRate>9.9900001287460327e-01</minHitRate>
    <maxFalseAlarm>3.0000001192092896e-01</maxFalseAlarm>
    <weightTrimRate>9.4999999999999996e-01</weightTrimRate>
    <maxDepth>1</maxDepth>
    <maxWeakCount>100</maxWeakCount></stageParams>
  <featureParams>
    <maxCatCount>0</maxCatCount>
    <featSize>1</featSize>
    <mode>BASIC</mode></featureParams>
  <stageNum>7</stageNum>
  <stages>
    <!-- stage 0 -->
    <_>
      <maxWeakCount>2</maxWeakCount>
      <stageThreshold>-1.0453280806541443e-01</stageThreshold>
      <weakClassifiers>
        <_>
          <internalNodes>
            0 -1 11 -4.7308877110481262e-03</internalNodes>
          <leafValues>
            -9.6296298503875732e-01 8.7362635135650635e-01</leafValues></_>
        <_>
          <internalNodes>
            0 -1 1 -5.1362119615077972e-02</internalNodes>
          <leafValues>
            8.5843014717102051e-01 -9.6355092525482178e-01</leafValues></_></weakClassifiers></_>
    <!-- stage 1 -->
    <_>
      <maxWeakCount>2</maxWeakCount>
      <stageThreshold>-1.0998037457466125e-01</stageThreshold>
      <weakClassifiers>
        <_>
          <internalNodes>
            0 -1 5 6.6789776086807251e-02</internalNodes>
          <leafValues>
            -9.4715446233749390e-01 8.8268154859542847e-01</leafValues></_>
        <_>
          <internalNodes>
            0 -1 12 3.3038523979485035e-03</internalNodes>
          <leafValues>
            -9.8884814977645874e-01 8.3717411756515503e-01</leafValues></_></weakClassifiers></_>
    <!-- stage 2 -->
    <_>
      <maxWeakCount>4</maxWeakCount>
      <stageThreshold>-4.1826522350311279e-01</stageThreshold>
      <weakClassifiers>
        <_>
          <internalNodes>
            0 -1 16 -7.9391688108444214e-02</internalNodes>
          <leafValues>
            8.4135979413986206e-01 -8.9939635992050171e-01</leafValues></_>
        <_>
          <internalNodes>
            0 -1 9 9.6189565956592560e-03</internalNodes>
          <leafValues>
            -9.3940979242324829e-01 7.6015150547027588e-01</leafValues></_>
        <_>
          <internalNodes>
            0 -1 19 -1.3495287857949734e-03</internalNodes>
          <leafValues>
            7.1566820144653320e-01 -9.5809578895568848e-01</leafValues></_>
        <_>
          <internalNodes>
            0 -1 24 1.8842941150069237e-02</internalNodes>
          <leafValues>
            -9.6741831302642822e-01 7.0487272739410400e-01</leafValues></_></weakClassifiers></_>
    <!-- stage 3 -->
    <_>
      <maxWeakCount>4</maxWeakCount>
      <stageThreshold>-5.6937062740325928e-01</stageThreshold>
      <weakClassifiers>
        <_>
          <internalNodes>
            0 -1 2 -3.8376796990633011e-02</internalNodes>
          <leafValues>
            7.8409093618392944e-01 -8.5542166233062744e-01</leafValues></_>
        <_>
          <internalNodes>
            0 -1 7 -1.9329328089952469e-02</internalNodes>
          <leafValues>
            7.1116530895233154e-01 -8.4360778331756592e-01</leafValues></_>
        <_>
          <internalNodes>
            0 -1 22 3.7547573447227478e-03</internalNodes>
          <leafValues>
            -9.5867687463760376e-01 5.3989911079406738e-01</leafValues></_>
        <_>
          <internalNodes>
            0 -1 0 -5.7409156113862991e-02</internalNodes>
          <leafValues>
            5.8975976705551147e-01 -9.0120476484298706e-01</leafValues></_></weakClassifiers></_>
    <!-- stage 4 -->
    <_>
      <maxWeakCount>4</maxWeakCount>
      <stageThreshold>-5.9578686952590942e-01</stageThreshold>
      <weakClassifiers>
        <_>
          <internalNodes>
            0 -1 6 -7.9312793910503387e-02</internalNodes>
          <leafValues>
            6.8639051914215088e-01 -7.4609375000000000e-01</leafValues></_>
        <_>
          <internalNodes>
            0 -1 15 5.8390251069795340e-05</internalNodes>
          <leafValues>
            -7.7530801296234131e-01 7.2527140378952026e-01</leafValues></_>
        <_>
          <internalNodes>
            0 -1 20 6.9547705352306366e-03</internalNodes>
          <leafValues>
            -9.6584111452102661e-01 5.3051292896270752e-01</leafValues></_>
        <_>
          <internalNodes>
            0 -1 17 5.8543644845485687e-03</internalNodes>
          <leafValues>
            -9.5219504833221436e-01 4.5897170901298523e-01</leafValues></_></weakClassifiers></_>
    <!-- stage 5 -->
    <_>
      <maxWeakCount>5</maxWeakCount>
      <stageThreshold>-1.1139705181121826e+00</stageThreshold>
      <weakClassifiers>
        <_>
          <internalNodes>
            0 -1 23 -4.4281851500272751e-02</internalNodes>
          <leafValues>
            7.0370370149612427e-01 -7.9559117555618286e-01</leafValues></_>
        <_>
          <internalNodes>
            0 -1 13 -9.0689826756715775e-03</internalNodes>
          <leafValues>
            5.0620168447494507e-01 -9.9112802743911743e-01</leafValues></_>
        <_>
          <internalNodes>
            0 -1 10 4.1134409606456757e-02</internalNodes>
          <leafValues>
            -7.6235735416412354e-01 6.0355013608932495e-01</leafValues></_>
        <_>
          <internalNodes>
            0 -1 4 -4.9752760678529739e-02</internalNodes>
          <leafValues>
            8.0090737342834473e-01 -6.4912885427474976e-01</leafValues></_>
        <_>
          <internalNodes>
            0 -1 8 3.4417980350553989e-03</internalNodes>
          <leafValues>
            -9.2415660619735718e-01 5.8690518140792847e-01</leafValues></_></weakClassifiers></_>
    <!-- stage 6 -->
    <_>
      <maxWeakCount>5</maxWeakCount>
      <stageThreshold>-1.2698019742965698e+00</stageThreshold>
      <weakClassifiers>
        <_>
          <internalNodes>
            0 -1 14 -1.2478500604629517e-01</internalNodes>
          <leafValues>
            7.0350402593612671e-01 -8.5803759098052979e-01</leafValues></_>
        <_>
          <internalNodes>
            0 -1 25 8.5005573928356171e-03</internalNodes>
          <leafValues>
            -7.8186583518981934e-01 6.4117211103439331e-01</leafValues></_>
        <_>
          <internalNodes>
            0 -1 18 -2.5497241877019405e-03</internalNodes>
          <leafValues>
            5.0963783264160156e-01 -9.6559870243072510e-01</leafValues></_>
        <_>
          <internalNodes>
            0 -1 3 3.2129883766174316e-02</internalNodes>
          <leafValues>
            -7.3695850372314453e-01 6.9214248657226563e-01</leafValues></_>
        <_>
          <internalNodes>
            0 -1 21 -1.0074615478515625e-02</internalNodes>
          <leafValues>
            -7.6876020431518555e-01 6.4962071180343628e-01</leafValues></_></weakClassifiers></_></stages>
  <features>
    <_>
      <rects>
        <_>
          0 0 12 5 -1.</_>
        <_>
          6 0 6 5 2.</_></rects>
      <tilted>0</tilted></_>
    <_>
      <rects>
        <_>
          0 0 24 4 -1.</_>
        <_>
          0 2 24 2 2.</_></rects>
      <tilted>0</tilted></_>
    <_>
      <rects>
        <_>
          0 1 6 7 -1.</_>
        <_>
          3 1 3 7 2.</_></rects>
      <tilted>0</tilted></_>
    <_>
      <rects>
        <_>
          0 3 10 6 -1.</_>
        <_>
          0 3 5 3 2.</_>
        <_>
          5 6 5 3 2.</_></rects>
      <tilted>0</tilted></_>
    <_>
      <rects>
        <_>
          0 4 4 20 -1.</_>
        <_>
          2 4 2 20 2.</_></rects>
      <tilted>0</tilted></_>
    <_>
      <rects>
        <_>
          2 0 12 10 -1.</_>
        <_>
          2 0 6 5 2.</_>
        <_>
          8 5 6 5 2.</_></rects>
      <tilted>0</tilted></_>
    <_>
      <rects>
        <_>
          3 0 18 4 -1.</_>
        <_>
          3 2 18 2 2.</_></rects>
      <tilted>0</tilted></_>
    <_>
      <rects>
        <_>
          3 7 8 6 -1.</_>
        <_>
          3 7 4 3 2.</_>
        <_>
          7 10 4 3 2.</_></rects>
      <tilted>0</tilted></_>
    <_>
      <rects>
        <_>
          3 12 6 2 -1.</_>
        <_>
          3 13 6 1 2.</_></rects>
      <tilted>0</tilted></_>
    <_>
      <rects>
        <_>
          6 11 13 2 -1.</_>
        <_>
          6 12 13 1 2.</_></rects>
      <tilted>0</tilted></_>
    <_>
      <rects>
        <_>
          7 3 8 6 -1.</_>
        <_>
          7 6 8 3 2.</_></rects>
      <tilted>0</tilted></_>
    <_>
      <rects>
        <_>
          7 11 12 1 -1.</_>
        <_>
          11 11 4 1 2.</_></rects>
      <tilted>0</tilted></_>
    <_>
      <rects>
        <_>
          7 12 4 2 -1.</_>
        <_>
          7 13 4 1 2.</_></rects>
      <tilted>0</tilted></_>
    <_>
      <rects>
        <_>
          7 18 12 4 -1.</_>
        <_>
          13 18 6 4 2.</_></rects>
      <tilted>0</tilted></_>
    <_>
      <rects>
        <_>
          8 0 16 10 -1.</_>
        <_>
          8 0 8 5 2.</_>
        <_>
          16 5 8 5 2.</_></rects>
      <tilted>0</tilted></_>
    <_>
      <rects>
        <_>
          8 11 9 1 -1.</_>
        <_>
          11 11 3 1 2.</_></rects>
      <tilted>0</tilted></_>
    <_>
      <rects>
        <_>
          10 1 14 8 -1.</_>
        <_>
          10 1 7 4 2.</_>
        <_>
          17 5 7 4 2.</_></rects>
      <tilted>0</tilted></_>
    <_>
      <rects>
        <_>
          10 11 10 2 -1.</_>
        <_>
          10 12 10 1 2.</_></rects>
      <tilted>0</tilted></_>
    <_>
      <rects>
        <_>
          12 9 1 10 -1.</_>
        <_>
          12 14 1 5 2.</_></rects>
      <tilted>0</tilted></_>
    <_>
      <rects>
        <_>
          12 11 2 2 -1.</_>
        <_>
          13 11 1 2 2.</_></rects>
      <tilted>0</tilted></_>
    <_>
      <rects>
        <_>
          13 8 6 8 -1.</_>
        <_>
          13 8 3 4 2.</_>
        <_>
          16 12 3 4 2.</_></rects>
      <tilted>0</tilted></_>
    <_>
      <rects>
        <_>
          14 3 2 9 -1.</_>
        <_>
          14 6 2 3 2.</_></rects>
      <tilted>0</tilted></_>
    <_>
      <rects>
        <_>
          14 12 7 2 -1.</_>
        <_>
          14 13 7 1 2.</_></rects>
      <tilted>0</tilted></_>
    <_>
      <rects>
        <_>
          15 1 8 8 -1.</_>
        <_>
          15 1 4 4 2.</_>
        <_>
          19 5 4 4 2.</_></rects>
      <tilted>0</tilted></_>
    <_>
      <rects>
        <_>
          18 0 6 7 -1.</_>
        <_>
          21 0 3 7 2.</_></rects>
      <tilted>0</tilted></_>
    <_>
      <rects>
        <_>
          22 4 2 19 -1.</_>
        <_>
          23 4 1 19 2.</_></rects>
      <tilted>0</tilted></_></features></cascade>
</opencv_storage>
