<?xml version="1.0"?>
<opencv_storage>
<stage5>
  <maxWeakCount>5</maxWeakCount>
  <stageThreshold>-1.1139705181121826e+00</stageThreshold>
  <weakClassifiers>
    <_>
      <internalNodes>
        0 -1 139872 -4.4281851500272751e-02</internalNodes>
      <leafValues>
        7.0370370149612427e-01 -7.9559117555618286e-01</leafValues></_>
    <_>
      <internalNodes>
        0 -1 89352 -9.0689826756715775e-03</internalNodes>
      <leafValues>
        5.0620168447494507e-01 -9.9112802743911743e-01</leafValues></_>
    <_>
      <internalNodes>
        0 -1 83331 4.1134409606456757e-02</internalNodes>
      <leafValues>
        -7.6235735416412354e-01 6.0355013608932495e-01</leafValues></_>
    <_>
      <internalNodes>
        0 -1 4210 -4.9752760678529739e-02</internalNodes>
      <leafValues>
        8.0090737342834473e-01 -6.4912885427474976e-01</leafValues></_>
    <_>
      <internalNodes>
        0 -1 46773 3.4417980350553989e-03</internalNodes>
      <leafValues>
        -9.2415660619735718e-01 5.8690518140792847e-01</leafValues></_></weakClassifiers></stage5>
</opencv_storage>
